<?xml version="1.0"?>
<opencv_storage>
<stage1>
  <maxWeakCount>6</maxWeakCount>
  <stageThreshold>-7.0199978351593018e-01</stageThreshold>
  <weakClassifiers>
    <_>
      <internalNodes>
        0 -1 78 4.6372916549444199e-02</internalNodes>
      <leafValues>
        -8.7795275449752808e-01 9.0650409460067749e-01</leafValues></_>
    <_>
      <internalNodes>
        0 -1 42 4.0478698909282684e-02</internalNodes>
      <leafValues>
        -8.1333279609680176e-01 7.3541074991226196e-01</leafValues></_>
    <_>
      <internalNodes>
        0 -1 127 5.0203122198581696e-02</internalNodes>
      <leafValues>
        -9.0351611375808716e-01 6.9463235139846802e-01</leafValues></_>
    <_>
      <internalNodes>
        0 -1 69 5.4990150034427643e-02</internalNodes>
      <leafValues>
        -8.6630207300186157e-01 6.6782534122467041e-01</leafValues></_>
    <_>
      <internalNodes>
        0 -1 40 3.9985157549381256e-02</internalNodes>
      <leafValues>
        -8.8852941989898682e-01 5.4970765113830566e-01</leafValues></_>
    <_>
      <internalNodes>
        0 -1 10 4.1101582348346710e-02</internalNodes>
      <leafValues>
        -9.2287951707839966e-01 5.5970978736877441e-01</leafValues></_></weakClassifiers></stage1>
</opencv_storage>
