<?xml version="1.0"?>
<opencv_storage>
<stage3>
  <maxWeakCount>9</maxWeakCount>
  <stageThreshold>-7.6259744167327881e-01</stageThreshold>
  <weakClassifiers>
    <_>
      <internalNodes>
        0 -1 124805 2.7931930162594654e-05</internalNodes>
      <leafValues>
        4.0449437499046326e-01 -1.</leafValues></_>
    <_>
      <internalNodes>
        0 -1 96991 -6.2847114168107510e-03</internalNodes>
      <leafValues>
        8.4436863660812378e-01 -5.4210162162780762e-01</leafValues></_>
    <_>
      <internalNodes>
        0 -1 9444 1.9695475697517395e-02</internalNodes>
      <leafValues>
        -9.4063746929168701e-01 4.4210919737815857e-01</leafValues></_>
    <_>
      <internalNodes>
        0 -1 60167 6.0433456674218178e-03</internalNodes>
      <leafValues>
        -4.8092943429946899e-01 7.7807003259658813e-01</leafValues></_>
    <_>
      <internalNodes>
        0 -1 104866 -5.5375276133418083e-03</internalNodes>
      <leafValues>
        9.4305580854415894e-01 -4.1528558731079102e-01</leafValues></_>
    <_>
      <internalNodes>
        0 -1 15238 -3.2183200120925903e-02</internalNodes>
      <leafValues>
        -9.1670149564743042e-01 4.5418259501457214e-01</leafValues></_>
    <_>
      <internalNodes>
        0 -1 290 1.6531802713871002e-02</internalNodes>
      <leafValues>
        -9.1798752546310425e-01 3.8971751928329468e-01</leafValues></_>
    <_>
      <internalNodes>
        0 -1 76353 -2.0148348063230515e-02</internalNodes>
      <leafValues>
        8.9545840024948120e-01 -4.8094817996025085e-01</leafValues></_>
    <_>
      <internalNodes>
        0 -1 83696 1.2236016802489758e-02</internalNodes>
      <leafValues>
        -5.4942250251770020e-01 9.1828733682632446e-01</leafValues></_></weakClassifiers></stage3>
</opencv_storage>
