<?xml version="1.0"?>
<opencv_storage>
<stage4>
  <maxWeakCount>10</maxWeakCount>
  <stageThreshold>-2.8266376256942749e-01</stageThreshold>
  <weakClassifiers>
    <_>
      <internalNodes>
        0 -1 83756 6.0722427442669868e-03</internalNodes>
      <leafValues>
        3.6820372939109802e-01 -9.7806215286254883e-01</leafValues></_>
    <_>
      <internalNodes>
        0 -1 113133 -6.5080993808805943e-03</internalNodes>
      <leafValues>
        7.4169814586639404e-01 -5.2955573797225952e-01</leafValues></_>
    <_>
      <internalNodes>
        0 -1 124804 -2.5851426471490413e-05</internalNodes>
      <leafValues>
        -1. 3.9456394314765930e-01</leafValues></_>
    <_>
      <internalNodes>
        0 -1 58110 -6.3873574137687683e-02</internalNodes>
      <leafValues>
        8.6291056871414185e-01 -4.3253543972969055e-01</leafValues></_>
    <_>
      <internalNodes>
        0 -1 54018 -2.3808624595403671e-02</internalNodes>
      <leafValues>
        8.4297037124633789e-01 -4.6495130658149719e-01</leafValues></_>
    <_>
      <internalNodes>
        0 -1 9225 -1.3560054823756218e-02</internalNodes>
      <leafValues>
        4.5867368578910828e-01 -7.9771113395690918e-01</leafValues></_>
    <_>
      <internalNodes>
        0 -1 67836 8.3301998674869537e-03</internalNodes>
      <leafValues>
        3.0688145756721497e-01 -9.2289113998413086e-01</leafValues></_>
    <_>
      <internalNodes>
        0 -1 108812 1.2731121852993965e-02</internalNodes>
      <leafValues>
        -4.2196622490882874e-01 9.1499310731887817e-01</leafValues></_>
    <_>
      <internalNodes>
        0 -1 114127 4.0142782032489777e-02</internalNodes>
      <leafValues>
        -4.4454956054687500e-01 9.4312524795532227e-01</leafValues></_>
    <_>
      <internalNodes>
        0 -1 125196 4.2222574847983196e-05</internalNodes>
      <leafValues>
        4.9187821149826050e-01 -1.</leafValues></_></weakClassifiers></stage4>
</opencv_storage>
