<?xml version="1.0"?>
<opencv_storage>
<cascade>
  <stageType>BOOST</stageType>
  <featureType>LBP</featureType>
  <height>20</height>
  <width>20</width>
  <stageParams>
    <boostType>GAB</boostType>
    <minHitRate>9.9900001287460327e-01</minHitRate>
    <maxFalseAlarm>5.0000000745058060e-02</maxFalseAlarm>
    <weightTrimRate>9.4999999999999996e-01</weightTrimRate>
    <maxDepth>1</maxDepth>
    <maxWeakCount>100</maxWeakCount></stageParams>
  <featureParams>
    <maxCatCount>256</maxCatCount>
    <featSize>1</featSize></featureParams>
  <stageNum>3</stageNum>
  <stages>
    <!-- stage 0 -->
    <_>
      <maxWeakCount>4</maxWeakCount>
      <stageThreshold>-5.6323248893022537e-02</stageThreshold>
      <weakClassifiers>
        <_>
          <internalNodes>
            0 -1 8 -18090753 -384208680 9605207 -779923453 -1987393393
            -540029757 -1515599649 -37</internalNodes>
          <leafValues>
            -9.4831013679504395e-01 9.5975857973098755e-01</leafValues></_>
        <_>
          <internalNodes>
            0 -1 4 -1693363713 -83804079 1346453911 -674164727
            -2146903906 -99974964 -2146914145 -754237301</internalNodes>
          <leafValues>
            -9.8167002201080322e-01 9.2151999473571777e-01</leafValues></_>
        <_>
          <internalNodes>
            0 -1 0 -716091181 -81719295 -1877950191 -216956927
            -2146910050 -662667126 -2004827909 -75241301</internalNodes>
          <leafValues>
            -9.4004791975021362e-01 9.4290548563003540e-01</leafValues></_>
        <_>
          <internalNodes>
            0 -1 7 -538978053 1494941696 1130587 -645840687 -930952514
            436404299 -1709129317 -1316421</internalNodes>
          <leafValues>
            -9.7262865304946899e-01 9.1051477193832397e-01</leafValues></_></weakClassifiers></_>
    <!-- stage 1 -->
    <_>
      <maxWeakCount>3</maxWeakCount>
      <stageThreshold>8.4072864055633545e-01</stageThreshold>
      <weakClassifiers>
        <_>
          <internalNodes>
            0 -1 1 1364021755 -1189068736 152605081 -15657967 461425032
            -133660536 151554520 -559333366</internalNodes>
          <leafValues>
            -9.7119343280792236e-01 9.1828793287277222e-01</leafValues></_>
        <_>
          <internalNodes>
            0 -1 3 1361563871 1526726656 1360019903 859897875
            -2146959160 -1442283512 -2139061765 -79671143</internalNodes>
          <leafValues>
            -9.7520536184310913e-01 8.9851701259613037e-01</leafValues></_>
        <_>
          <internalNodes>
            0 -1 5 -605298721 -779112241 294322177 -619245303
            -2088007030 168200458 -1549860693 -67124449</internalNodes>
          <leafValues>
            -9.5572769641876221e-01 9.1340506076812744e-01</leafValues></_></weakClassifiers></_>
    <!-- stage 2 -->
    <_>
      <maxWeakCount>3</maxWeakCount>
      <stageThreshold>7.7705794572830200e-01</stageThreshold>
      <weakClassifiers>
        <_>
          <internalNodes>
            0 -1 6 -212078181 -70795133 1879114131 -1878794085
            -698678645 -524763133 -1055659249 -204481793</internalNodes>
          <leafValues>
            -9.6610170602798462e-01 8.6363637447357178e-01</leafValues></_>
        <_>
          <internalNodes>
            0 -1 2 -72224517 -46854125 -2138193765 -549117683 -914052677
            -569147254 -1999992577 -883443265</internalNodes>
          <leafValues>
            -9.1652631759643555e-01 9.0977722406387329e-01</leafValues></_>
        <_>
          <internalNodes>
            0 -1 9 -9440437 -218378231 -716060729 1938026959 -222175157
            1619591938 -670904320 -204475413</internalNodes>
          <leafValues>
            -9.5702534914016724e-01 8.3338242769241333e-01</leafValues></_></weakClassifiers></_></stages>
  <features>
    <_>
      <rect>
        0 7 6 1</rect></_>
    <_>
      <rect>
        0 10 6 1</rect></_>
    <_>
      <rect>
        2 7 6 1</rect></_>
    <_>
      <rect>
        2 10 6 1</rect></_>
    <_>
      <rect>
        4 8 4 1</rect></_>
    <_>
      <rect>
        8 5 1 3</rect></_>
    <_>
      <rect>
        8 7 1 3</rect></_>
    <_>
      <rect>
        9 3 1 4</rect></_>
    <_>
      <rect>
        9 4 1 4</rect></_>
    <_>
      <rect>
        9 8 1 2</rect></_></features></cascade>
</opencv_storage>
